int W1[128][10] = {
{1031,3170,-16323,-10518,10238,-17934,1183,-788,-7756,55},
{-7252,2873,-5349,7666,-7139,-488,-9720,-15408,18855,-11494},
{-5408,-3614,-20097,-5419,3116,242,9796,-7316,-4515,11420},
{16079,6763,-4819,1507,-22300,10292,-6134,2063,-12887,7316},
{-5309,2921,6991,12625,-1262,12763,5020,-227,5191,-4230},
{6196,-10443,-1530,-6866,3083,17518,5733,4534,-6567,5076},
{8452,-6393,751,-5268,-1091,10395,5909,-716,14256,-4525},
{13919,-10615,4037,-13135,-9415,-3576,-7571,-1705,-5715,8650},
{3182,-21287,-7594,1161,29134,22904,-8088,6320,-40674,-7786},
{-4585,-156,2005,-2549,-16993,18154,2019,-12707,-6905,15617},
{16720,-16453,-21228,7214,13904,37722,6370,-24395,-24387,-3666},
{-681,-19286,-8330,9198,-3854,14246,8549,-5173,-10262,-14046},
{10725,14107,-12245,5522,4532,-2905,3844,-901,-1855,9523},
{6870,17790,19964,-1646,-14779,-3490,143,2354,30707,17277},
{1091,12934,6469,112,-12074,3904,-15034,8,16551,-1718},
{-8160,4845,-7816,-6025,-5442,-9715,11911,-5445,15526,5761},
{-10853,4965,-1084,10863,-387,-19016,-8905,-2982,22803,-9444},
{14880,11400,-5365,-11677,4779,-14332,11150,8597,23087,10290},
{13579,10418,-4761,-9817,3885,-15418,-4372,-166,9208,5037},
{-13746,16702,-9532,15571,1077,2790,9976,-13172,-687,5176},
{11346,17512,1689,9933,-6827,3981,2018,9370,-2264,2732},
{6305,-11388,3796,2414,-12868,8283,-8053,-5931,-8819,9353},
{-6579,-8962,-10893,-13009,3319,5196,-2954,-6018,-9282,1261},
{2315,-6670,-9659,10574,1015,-58,-1089,12296,915,7086},
{6968,11010,5596,-12149,10215,-30355,4593,666,20327,-33120},
{-13189,17392,10847,11924,13876,13782,-5815,7915,10856,-223},
{10170,13315,5703,-9678,5174,-8231,-8951,-8581,10510,-10043},
{7632,-6992,10815,8747,-9525,9228,1387,-10700,4377,12815},
{-11815,-3557,-420,-3718,7298,-694,-9863,5064,-7573,10987},
{-11663,-16337,10393,-2366,710,-13525,7430,1965,-2257,-13078},
{15919,-10877,2820,-12433,-12897,6250,81,-6344,-7285,-4298},
{4282,-15007,-3845,-10663,-5188,-13982,-991,15013,-19767,7383},
{9319,-16284,8095,-2042,120,-8141,-7382,-19290,-3391,-3361},
{4178,-1015,-5791,-11102,-518,11299,9381,-4218,7490,-8209},
{537,-13460,7715,-3297,1490,7852,662,-12365,10800,6679},
{3386,-7818,-11057,10565,-5949,5998,-12651,-2273,19474,1842},
{-4792,11165,7416,3576,8843,19848,13674,-2361,-5239,-2719},
{6738,1127,-318,-2761,6579,-7898,-15194,4957,-18417,2759},
{-3485,-16576,-10218,-1769,16248,800,1953,8189,6945,12344},
{-4112,-11680,87,-9926,9674,-10851,-4827,-7246,-14880,-4063},
{-5310,14890,7526,9666,15194,3,11557,-15476,20079,-11022},
{-10230,4319,-2727,-4304,4475,-5276,-2037,7017,2305,6231},
{-16190,-11774,-2670,11078,-1673,16817,-9844,-5092,-3651,5181},
{12349,-9246,8667,16086,3229,2375,12522,-5995,17603,-3947},
{-7938,1763,6931,3021,-2844,7224,-13820,-2906,11561,11790},
{-2810,-4634,8021,3045,21652,-4113,9139,9316,-4104,-7712},
{-2819,-14151,-11630,7550,7000,6433,4005,-9840,-3352,8199},
{-7717,-9292,910,-12781,9223,-19546,-10155,-746,7487,12478},
{-3591,-15827,12313,10202,11055,6978,8885,9786,-14953,-16760},
{-10320,-3735,3060,10443,-11880,8287,8002,-5729,-89,-14914},
{6098,2314,-13879,-10800,5736,-6907,-1539,7287,1624,8337},
{-1821,3401,5391,3879,11316,-17568,9695,16251,3168,-4935},
{8326,15907,3188,10478,-7512,-11565,12334,-596,3114,311},
{-7677,10286,7330,-5600,11952,3477,-13378,-2852,-15229,1391},
{4396,-4515,-13258,9940,-10213,-7935,9160,-8504,7366,-11013},
{1288,-9848,3869,-9970,-6633,-21027,-9399,736,9653,-6499},
{-8032,2598,-5817,15218,5103,3404,9239,-8845,10827,-9557},
{-4746,1785,8029,1790,8841,8502,7889,-11690,8307,13908},
{8002,2717,-665,13346,-5440,-3822,9341,3958,16010,-8063},
{12177,3599,-8524,14233,5489,2849,10452,-10687,-9701,15289},
{5904,5639,-5850,12897,3258,14678,-1438,11155,-5038,-7826},
{1205,-7612,-2301,4569,-7030,5072,-6607,-556,-17996,-17272},
{-6302,1677,-11880,10719,14763,-6932,-1144,-7039,-14590,-17916},
{11871,5953,-738,-125,-10036,-18381,-3841,6329,-1093,-1761},
{-12684,-18507,5162,10204,9623,-12742,-705,13351,-21684,-7436},
{-11013,-15154,10851,4289,-6050,19850,-3027,-485,13855,9803},
{-20972,-14242,6204,-11282,4356,-7155,-7298,9945,-22262,8022},
{7441,-15392,8279,14535,-15985,-3762,2129,10646,-12381,-3123},
{-14050,11663,-7588,-3799,-2351,228,-9589,5200,-13109,7348},
{22851,6710,-6144,12,19866,2819,12038,-4249,14218,10314},
{-3481,-11333,7556,3966,2239,-1008,-245,-5847,-7269,-10936},
{3725,-7071,-2192,11508,-11591,-235,-690,395,1226,16715},
{-28277,7586,9484,12694,6705,-5864,11754,3036,344,1856},
{3090,-3485,-9872,-2355,-13694,-5839,11728,8234,-9283,8230},
{-14409,9494,7575,-7140,-8071,-14979,12001,10628,-1880,646},
{-10677,8255,5537,-1317,-13347,221,8661,-13072,13182,4751},
{-19911,-2092,-826,13663,-1465,6095,190,-11146,-4947,-6904},
{13068,-6385,-1453,-13896,-776,19735,-13732,-778,6030,-16509},
{11212,-3098,-13223,-12443,1028,3433,4526,-3011,9928,8139},
{-923,-6501,-5935,-1820,-10971,7053,9286,4502,7177,14041},
{-8227,3908,-1549,2449,18058,-18790,10846,-11356,-7641,-6112},
{9595,-8005,-2970,-5833,14504,-9823,13704,2328,17978,-1705},
{11961,-16484,5382,-7668,11592,-15386,10810,-19453,11992,-1996},
{11989,8151,-10239,-5436,18746,-12097,157,-4502,-6043,11624},
{9613,-1778,9174,-6374,9384,-14593,-107,3502,1411,-9365},
{-11286,12864,6154,-1602,-18266,6671,-1356,17387,-9855,6756},
{-4966,16464,-6204,-12660,644,12030,-4318,-2742,-13025,-15201},
{2037,-10051,11704,-3397,-3390,2531,2243,-567,-786,4624},
{19428,-13207,-15101,-8644,5900,16331,-6796,7792,-9361,2083},
{4366,3729,-16233,-2592,19,-15647,4918,-1687,-790,1835},
{6631,265,-11198,-93,-4843,-8613,14318,-743,6177,7100},
{19006,-1569,-13049,-5184,-18,-26626,4090,10430,5712,22595},
{15496,13678,10454,1573,-3288,-2382,12760,-9333,15397,-2378},
{-12337,6655,4923,2643,18296,1270,-3949,1711,-14403,-2509},
{-3558,1861,20475,-4089,-9416,-15975,2928,-7635,-17624,13958},
{7839,9121,-2444,-11688,5438,-9819,-12010,-162,5310,7500},
{3456,763,19141,-6525,-3477,6609,-10594,21684,-19535,-21957},
{16181,18232,1276,-10551,-8570,18046,13007,121,7143,-2649},
{-9510,-497,29206,10670,-32933,10111,-8616,20253,-9622,-3075},
{-18097,815,15815,-5094,-2070,2990,5319,19986,-10242,9035},
{-4447,-4462,7583,-4264,10010,1554,-8460,-2476,5026,10026},
{2538,6386,-5434,1028,8068,-11534,1404,8363,-6175,-8300},
{11343,16197,7170,-3869,684,9545,13626,16786,-13810,-6634},
{4382,6291,3821,9459,-12383,5730,-15503,-10503,-7941,9433},
{-73,5926,-9473,-5241,-7059,-3451,12639,14329,-7344,-41656},
{4032,10177,-4296,-6451,-9212,14195,11655,3399,6981,1748},
{-3112,-3695,18778,12291,-18057,14170,-12558,4116,3824,-4606},
{1922,-1316,-3812,-7249,-10737,12454,12535,8373,2515,20967},
{-1928,-3665,5860,11260,3531,4966,12260,-4954,-1504,1050},
{-8360,448,4826,-609,19564,2630,-685,-7111,6313,11132},
{-1686,7380,-9578,-5029,-8149,-9944,501,12373,-2073,-9537},
{12601,-8907,8355,-162,-6986,-7582,4645,10963,-4890,-815},
{-14271,-16768,11505,-1763,11270,-9087,-1083,-1242,4866,16015},
{9814,5995,-1857,-10736,3810,-26570,222,-13014,-7440,13358},
{3175,2175,16048,8397,1131,-16812,10446,4895,-8376,10492},
{10476,-6368,6222,-9711,-11227,-25837,2361,28482,-9866,30656},
{-12961,9070,8101,15507,-11683,-9080,9514,17872,4922,4662},
{-9822,13325,-6031,11210,13547,12038,6763,11254,11597,-4647},
{-13355,-5330,9822,-9060,4992,10791,-9707,-10298,689,5032},
{9988,-5312,-5267,3208,-5533,4866,2749,6664,688,-5101},
{5145,-26908,9212,10293,-13078,-6987,-1494,-7061,-4200,116},
{6712,12669,8011,5128,-10621,-9255,-5782,8323,-1753,11982},
{-11404,-23512,-5023,-7469,6916,-6554,-9395,4747,-6965,19504},
{1784,-8008,-1410,12148,-3873,-8995,4181,-7674,-8469,-10018},
{-2936,14261,8524,4278,2019,2356,-12262,3158,-6695,-1958},
{6695,3821,618,-5,12647,-14283,-6593,-9808,10719,-1224},
{-5933,-340,-13617,6343,5937,-7859,-4244,2290,10559,-13314},
{-3681,4469,9170,8815,-10660,391,4556,-6926,-8936,-945}
}; 
int B1[10] = {-91082,68096,55275,28436,-9299,-17248,-32139,-49643,66436,94490};

int W2[10][6] = {
{-39296,2826,-11724,-28399,18096,45017},
{20655,9175,32826,-45097,-9662,-31192},
{34478,-29487,9709,19299,10294,-25555},
{-29380,3638,-26935,-18101,1562,19454},
{-40376,24398,1290,3853,52810,-25831},
{-30907,-41536,8073,4506,124,66384},
{16665,-14602,-15517,31168,-30052,-3576},
{22979,-8675,28068,-43813,1983,-11231},
{-10531,24644,25700,34539,-32392,-22674},
{31978,21984,-56007,20767,-30012,15690}};

int B2[6] = {
-2881,-2017,1013,1336,12882,8160};
